<?xml version="1.0"?>
<opencv_storage>
<cascade>
  <stageType>BOOST</stageType>
  <featureType>HAAR</featureType>
  <height>30</height>
  <width>50</width>
  <stageParams>
    <boostType>GAB</boostType>
    <minHitRate>9.9900001287460327e-01</minHitRate>
    <maxFalseAlarm>5.0000000000000000e-01</maxFalseAlarm>
    <weightTrimRate>9.4999999999999996e-01</weightTrimRate>
    <maxDepth>1</maxDepth>
    <maxWeakCount>100</maxWeakCount></stageParams>
  <featureParams>
    <maxCatCount>0</maxCatCount>
    <featSize>1</featSize>
    <mode>ALL</mode></featureParams>
  <stageNum>11</stageNum>
  <stages>
    <!-- stage 0 -->
    <_>
      <maxWeakCount>2</maxWeakCount>
      <stageThreshold>-4.4314640760421753e-01</stageThreshold>
      <weakClassifiers>
        <_>
          <internalNodes>
            0 -1 17 1.4238723451853730e-05</internalNodes>
          <leafValues>
            4.0740740299224854e-01 -9.4999998807907104e-01</leafValues></_>
        <_>
          <internalNodes>
            0 -1 13 6.1745835409965366e-05</internalNodes>
          <leafValues>
            5.0685358047485352e-01 -1.</leafValues></_></weakClassifiers></_>
    <!-- stage 1 -->
    <_>
      <maxWeakCount>2</maxWeakCount>
      <stageThreshold>1.1999999731779099e-01</stageThreshold>
      <weakClassifiers>
        <_>
          <internalNodes>
            0 -1 15 -8.5953834059182554e-05</internalNodes>
          <leafValues>
            -8.7999999523162842e-01 1.</leafValues></_>
        <_>
          <internalNodes>
            0 -1 5 4.1586846113204956e-02</internalNodes>
          <leafValues>
            -6.8250113725662231e-01 1.</leafValues></_></weakClassifiers></_>
    <!-- stage 2 -->
    <_>
      <maxWeakCount>2</maxWeakCount>
      <stageThreshold>-4.8426783084869385e-01</stageThreshold>
      <weakClassifiers>
        <_>
          <internalNodes>
            0 -1 19 5.3220293921185657e-05</internalNodes>
          <leafValues>
            4.0740740299224854e-01 -9.4999998807907104e-01</leafValues></_>
        <_>
          <internalNodes>
            0 -1 18 -6.2636623624712229e-05</internalNodes>
          <leafValues>
            -8.9167523384094238e-01 5.6459021568298340e-01</leafValues></_></weakClassifiers></_>
    <!-- stage 3 -->
    <_>
      <maxWeakCount>2</maxWeakCount>
      <stageThreshold>-5.2736330032348633e-01</stageThreshold>
      <weakClassifiers>
        <_>
          <internalNodes>
            0 -1 11 5.8793986681848764e-05</internalNodes>
          <leafValues>
            3.5714286565780640e-01 -9.4871795177459717e-01</leafValues></_>
        <_>
          <internalNodes>
            0 -1 9 -2.1128627849975601e-05</internalNodes>
          <leafValues>
            -1. 4.2135468125343323e-01</leafValues></_></weakClassifiers></_>
    <!-- stage 4 -->
    <_>
      <maxWeakCount>2</maxWeakCount>
      <stageThreshold>-4.7281897068023682e-01</stageThreshold>
      <weakClassifiers>
        <_>
          <internalNodes>
            0 -1 7 9.3461363576352596e-05</internalNodes>
          <leafValues>
            2.8571429848670959e-01 -8.9743590354919434e-01</leafValues></_>
        <_>
          <internalNodes>
            0 -1 0 -6.5234198700636625e-05</internalNodes>
          <leafValues>
            -1. 4.2461693286895752e-01</leafValues></_></weakClassifiers></_>
    <!-- stage 5 -->
    <_>
      <maxWeakCount>1</maxWeakCount>
      <stageThreshold>1.7647059261798859e-01</stageThreshold>
      <weakClassifiers>
        <_>
          <internalNodes>
            0 -1 1 -2.4609575048089027e-03</internalNodes>
          <leafValues>
            -1. 1.7647059261798859e-01</leafValues></_></weakClassifiers></_>
    <!-- stage 6 -->
    <_>
      <maxWeakCount>2</maxWeakCount>
      <stageThreshold>-1.9664034247398376e-01</stageThreshold>
      <weakClassifiers>
        <_>
          <internalNodes>
            0 -1 2 1.2432114090188406e-05</internalNodes>
          <leafValues>
            5.2380955219268799e-01 -8.2608693838119507e-01</leafValues></_>
        <_>
          <internalNodes>
            0 -1 14 -1.3674030080437660e-02</internalNodes>
          <leafValues>
            8.3356297016143799e-01 -7.2044986486434937e-01</leafValues></_></weakClassifiers></_>
    <!-- stage 7 -->
    <_>
      <maxWeakCount>2</maxWeakCount>
      <stageThreshold>1.9159628078341484e-02</stageThreshold>
      <weakClassifiers>
        <_>
          <internalNodes>
            0 -1 3 -1.3023321516811848e-02</internalNodes>
          <leafValues>
            1. -6.7857140302658081e-01</leafValues></_>
        <_>
          <internalNodes>
            0 -1 16 -6.8789120996370912e-04</internalNodes>
          <leafValues>
            6.9773107767105103e-01 -8.3378726243972778e-01</leafValues></_></weakClassifiers></_>
    <!-- stage 8 -->
    <_>
      <maxWeakCount>2</maxWeakCount>
      <stageThreshold>-1.6863395273685455e-01</stageThreshold>
      <weakClassifiers>
        <_>
          <internalNodes>
            0 -1 10 2.7888398617506027e-03</internalNodes>
          <leafValues>
            -7.0370370149612427e-01 8.4615385532379150e-01</leafValues></_>
        <_>
          <internalNodes>
            0 -1 4 5.2270956803113222e-04</internalNodes>
          <leafValues>
            5.3506976366043091e-01 -8.3551704883575439e-01</leafValues></_></weakClassifiers></_>
    <!-- stage 9 -->
    <_>
      <maxWeakCount>2</maxWeakCount>
      <stageThreshold>-1.8929480016231537e-01</stageThreshold>
      <weakClassifiers>
        <_>
          <internalNodes>
            0 -1 12 -2.0171016454696655e-02</internalNodes>
          <leafValues>
            8.3333331346511841e-01 -6.7272728681564331e-01</leafValues></_>
        <_>
          <internalNodes>
            0 -1 8 3.0838092789053917e-04</internalNodes>
          <leafValues>
            4.8343247175216675e-01 -9.5315653085708618e-01</leafValues></_></weakClassifiers></_>
    <!-- stage 10 -->
    <_>
      <maxWeakCount>2</maxWeakCount>
      <stageThreshold>-1.7073495686054230e-01</stageThreshold>
      <weakClassifiers>
        <_>
          <internalNodes>
            0 -1 6 9.7936706151813269e-04</internalNodes>
          <leafValues>
            -6.7272728681564331e-01 8.3333331346511841e-01</leafValues></_>
        <_>
          <internalNodes>
            0 -1 20 6.0044501879019663e-05</internalNodes>
          <leafValues>
            5.0199228525161743e-01 -9.1085278987884521e-01</leafValues></_></weakClassifiers></_></stages>
  <features>
    <_>
      <rects>
        <_>
          0 15 3 2 -1.</_>
        <_>
          0 16 3 1 2.</_></rects>
      <tilted>0</tilted></_>
    <_>
      <rects>
        <_>
          1 22 24 7 -1.</_>
        <_>
          9 22 8 7 3.</_></rects>
      <tilted>0</tilted></_>
    <_>
      <rects>
        <_>
          1 24 24 5 -1.</_>
        <_>
          7 24 12 5 2.</_></rects>
      <tilted>0</tilted></_>
    <_>
      <rects>
        <_>
          3 4 28 9 -1.</_>
        <_>
          3 7 28 3 3.</_></rects>
      <tilted>0</tilted></_>
    <_>
      <rects>
        <_>
          4 10 28 1 -1.</_>
        <_>
          11 10 14 1 2.</_></rects>
      <tilted>0</tilted></_>
    <_>
      <rects>
        <_>
          7 0 7 28 -1.</_>
        <_>
          7 7 7 14 2.</_></rects>
      <tilted>0</tilted></_>
    <_>
      <rects>
        <_>
          11 1 10 2 -1.</_>
        <_>
          11 1 5 1 2.</_>
        <_>
          16 2 5 1 2.</_></rects>
      <tilted>0</tilted></_>
    <_>
      <rects>
        <_>
          11 11 2 9 -1.</_>
        <_>
          11 14 2 3 3.</_></rects>
      <tilted>0</tilted></_>
    <_>
      <rects>
        <_>
          12 6 34 1 -1.</_>
        <_>
          29 6 17 1 2.</_></rects>
      <tilted>0</tilted></_>
    <_>
      <rects>
        <_>
          14 14 4 6 -1.</_>
        <_>
          14 14 2 3 2.</_>
        <_>
          16 17 2 3 2.</_></rects>
      <tilted>0</tilted></_>
    <_>
      <rects>
        <_>
          15 10 8 20 -1.</_>
        <_>
          19 10 4 20 2.</_></rects>
      <tilted>0</tilted></_>
    <_>
      <rects>
        <_>
          22 12 2 8 -1.</_>
        <_>
          22 12 1 8 2.</_></rects>
      <tilted>1</tilted></_>
    <_>
      <rects>
        <_>
          23 5 5 24 -1.</_>
        <_>
          23 11 5 12 2.</_></rects>
      <tilted>0</tilted></_>
    <_>
      <rects>
        <_>
          26 25 24 3 -1.</_>
        <_>
          34 25 8 3 3.</_></rects>
      <tilted>0</tilted></_>
    <_>
      <rects>
        <_>
          29 6 9 15 -1.</_>
        <_>
          32 9 3 15 3.</_></rects>
      <tilted>1</tilted></_>
    <_>
      <rects>
        <_>
          29 25 20 4 -1.</_>
        <_>
          34 25 10 4 2.</_></rects>
      <tilted>0</tilted></_>
    <_>
      <rects>
        <_>
          30 4 17 8 -1.</_>
        <_>
          28 6 17 4 2.</_></rects>
      <tilted>1</tilted></_>
    <_>
      <rects>
        <_>
          30 24 1 4 -1.</_>
        <_>
          30 24 1 2 2.</_></rects>
      <tilted>1</tilted></_>
    <_>
      <rects>
        <_>
          33 24 6 3 -1.</_>
        <_>
          35 24 2 3 3.</_></rects>
      <tilted>0</tilted></_>
    <_>
      <rects>
        <_>
          38 25 8 3 -1.</_>
        <_>
          42 25 4 3 2.</_></rects>
      <tilted>0</tilted></_>
    <_>
      <rects>
        <_>
          44 6 5 9 -1.</_>
        <_>
          41 9 5 3 3.</_></rects>
      <tilted>1</tilted></_></features></cascade>
</opencv_storage>
